<?xml version="1.0"?>
<opencv_storage>
<cascade>
  <stageType>BOOST</stageType>
  <featureType>HAAR</featureType>
  <height>40</height>
  <width>40</width>
  <stageParams>
    <boostType>GAB</boostType>
    <minHitRate>9.9500000476837158e-01</minHitRate>
    <maxFalseAlarm>5.0000000000000000e-01</maxFalseAlarm>
    <weightTrimRate>9.4999998807907104e-01</weightTrimRate>
    <maxDepth>1</maxDepth>
    <maxWeakCount>100</maxWeakCount></stageParams>
  <featureParams>
    <maxCatCount>0</maxCatCount>
    <featSize>1</featSize>
    <mode>BASIC</mode></featureParams>
  <stageNum>5</stageNum>
  <stages>
    <!-- stage 0 -->
    <_>
      <maxWeakCount>2</maxWeakCount>
      <stageThreshold>-1.9958866760134697e-02</stageThreshold>
      <weakClassifiers>
        <_>
          <internalNodes>
            0 -1 7 1.3235840946435928e-02</internalNodes>
          <leafValues>
            -9.9331104755401611e-01 9.6666663885116577e-01</leafValues></_>
        <_>
          <internalNodes>
            0 -1 9 7.3774829506874084e-03</internalNodes>
          <leafValues>
            -9.8662555217742920e-01 1.</leafValues></_></weakClassifiers></_>
    <!-- stage 1 -->
    <_>
      <maxWeakCount>1</maxWeakCount>
      <stageThreshold>9.3548387289047241e-01</stageThreshold>
      <weakClassifiers>
        <_>
          <internalNodes>
            0 -1 1 3.2733744382858276e-01</internalNodes>
          <leafValues>
            -1. 9.3548387289047241e-01</leafValues></_></weakClassifiers></_>
    <!-- stage 2 -->
    <_>
      <maxWeakCount>2</maxWeakCount>
      <stageThreshold>-1.4328317344188690e-01</stageThreshold>
      <weakClassifiers>
        <_>
          <internalNodes>
            0 -1 2 2.3592924699187279e-02</internalNodes>
          <leafValues>
            -9.7993308305740356e-01 8.9999997615814209e-01</leafValues></_>
        <_>
          <internalNodes>
            0 -1 8 1.0532665997743607e-02</internalNodes>
          <leafValues>
            -9.7231328487396240e-01 8.3664995431900024e-01</leafValues></_></weakClassifiers></_>
    <!-- stage 3 -->
    <_>
      <maxWeakCount>3</maxWeakCount>
      <stageThreshold>-1.0215758085250854e+00</stageThreshold>
      <weakClassifiers>
        <_>
          <internalNodes>
            0 -1 4 1.5456465072929859e-02</internalNodes>
          <leafValues>
            -9.6666663885116577e-01 8.6440676450729370e-01</leafValues></_>
        <_>
          <internalNodes>
            0 -1 6 -2.7585262432694435e-03</internalNodes>
          <leafValues>
            8.5003745555877686e-01 -9.4332110881805420e-01</leafValues></_>
        <_>
          <internalNodes>
            0 -1 10 -3.2685440964996815e-03</internalNodes>
          <leafValues>
            8.9018678665161133e-01 -9.0494662523269653e-01</leafValues></_></weakClassifiers></_>
    <!-- stage 4 -->
    <_>
      <maxWeakCount>3</maxWeakCount>
      <stageThreshold>-1.2163919210433960e+00</stageThreshold>
      <weakClassifiers>
        <_>
          <internalNodes>
            0 -1 5 -6.2486166134476662e-03</internalNodes>
          <leafValues>
            8.5714286565780640e-01 -9.4719469547271729e-01</leafValues></_>
        <_>
          <internalNodes>
            0 -1 0 2.4921074509620667e-02</internalNodes>
          <leafValues>
            -9.2339605093002319e-01 7.3443871736526489e-01</leafValues></_>
        <_>
          <internalNodes>
            0 -1 3 -5.9410491958260536e-03</internalNodes>
          <leafValues>
            6.5419882535934448e-01 -9.8469310998916626e-01</leafValues></_></weakClassifiers></_></stages>
  <features>
    <_>
      <rects>
        <_>
          1 28 16 12 -1.</_>
        <_>
          1 28 8 6 2.</_>
        <_>
          9 34 8 6 2.</_></rects>
      <tilted>0</tilted></_>
    <_>
      <rects>
        <_>
          4 5 30 27 -1.</_>
        <_>
          4 14 30 9 3.</_></rects>
      <tilted>0</tilted></_>
    <_>
      <rects>
        <_>
          4 12 9 15 -1.</_>
        <_>
          7 12 3 15 3.</_></rects>
      <tilted>0</tilted></_>
    <_>
      <rects>
        <_>
          5 6 14 2 -1.</_>
        <_>
          12 6 7 2 2.</_></rects>
      <tilted>0</tilted></_>
    <_>
      <rects>
        <_>
          10 13 12 5 -1.</_>
        <_>
          14 13 4 5 3.</_></rects>
      <tilted>0</tilted></_>
    <_>
      <rects>
        <_>
          20 13 4 8 -1.</_>
        <_>
          20 13 2 4 2.</_>
        <_>
          22 17 2 4 2.</_></rects>
      <tilted>0</tilted></_>
    <_>
      <rects>
        <_>
          23 15 1 9 -1.</_>
        <_>
          23 18 1 3 3.</_></rects>
      <tilted>0</tilted></_>
    <_>
      <rects>
        <_>
          25 22 12 8 -1.</_>
        <_>
          25 22 6 4 2.</_>
        <_>
          31 26 6 4 2.</_></rects>
      <tilted>0</tilted></_>
    <_>
      <rects>
        <_>
          26 0 10 8 -1.</_>
        <_>
          26 0 5 4 2.</_>
        <_>
          31 4 5 4 2.</_></rects>
      <tilted>0</tilted></_>
    <_>
      <rects>
        <_>
          28 22 6 10 -1.</_>
        <_>
          28 22 3 5 2.</_>
        <_>
          31 27 3 5 2.</_></rects>
      <tilted>0</tilted></_>
    <_>
      <rects>
        <_>
          38 16 2 13 -1.</_>
        <_>
          39 16 1 13 2.</_></rects>
      <tilted>0</tilted></_></features></cascade>
</opencv_storage>
