<?xml version="1.0"?>
<opencv_storage>
<cascade>
  <stageType>BOOST</stageType>
  <featureType>HAAR</featureType>
  <height>30</height>
  <width>24</width>
  <stageParams>
    <boostType>GAB</boostType>
    <minHitRate>9.9500000476837158e-01</minHitRate>
    <maxFalseAlarm>5.0000000000000000e-01</maxFalseAlarm>
    <weightTrimRate>9.4999998807907104e-01</weightTrimRate>
    <maxDepth>1</maxDepth>
    <maxWeakCount>100</maxWeakCount></stageParams>
  <featureParams>
    <maxCatCount>0</maxCatCount>
    <featSize>1</featSize>
    <mode>BASIC</mode></featureParams>
  <stageNum>8</stageNum>
  <stages>
    <!-- stage 0 -->
    <_>
      <maxWeakCount>3</maxWeakCount>
      <stageThreshold>-1.2163151502609253e+00</stageThreshold>
      <weakClassifiers>
        <_>
          <internalNodes>
            0 -1 1 -3.2912981510162354e-01</internalNodes>
          <leafValues>
            9.3548387289047241e-01 -9.9441343545913696e-01</leafValues></_>
        <_>
          <internalNodes>
            0 -1 8 -1.2746557593345642e-01</internalNodes>
          <leafValues>
            9.6854424476623535e-01 -9.5574367046356201e-01</leafValues></_>
        <_>
          <internalNodes>
            0 -1 10 -1.8312929570674896e-01</internalNodes>
          <leafValues>
            7.3384195566177368e-01 -9.8839247226715088e-01</leafValues></_></weakClassifiers></_>
    <!-- stage 1 -->
    <_>
      <maxWeakCount>3</maxWeakCount>
      <stageThreshold>-1.1271114349365234e+00</stageThreshold>
      <weakClassifiers>
        <_>
          <internalNodes>
            0 -1 13 -6.3486441969871521e-02</internalNodes>
          <leafValues>
            9.3442624807357788e-01 -9.8885792493820190e-01</leafValues></_>
        <_>
          <internalNodes>
            0 -1 3 -1.1262711882591248e-01</internalNodes>
          <leafValues>
            8.1568646430969238e-01 -9.4995409250259399e-01</leafValues></_>
        <_>
          <internalNodes>
            0 -1 2 3.6680221557617188e-02</internalNodes>
          <leafValues>
            -9.7552061080932617e-01 8.1170058250427246e-01</leafValues></_></weakClassifiers></_>
    <!-- stage 2 -->
    <_>
      <maxWeakCount>3</maxWeakCount>
      <stageThreshold>-1.2858008146286011e+00</stageThreshold>
      <weakClassifiers>
        <_>
          <internalNodes>
            0 -1 18 5.6606449186801910e-02</internalNodes>
          <leafValues>
            -9.7740113735198975e-01 7.2727274894714355e-01</leafValues></_>
        <_>
          <internalNodes>
            0 -1 7 -3.5975769162178040e-02</internalNodes>
          <leafValues>
            8.1436687707901001e-01 -9.3324679136276245e-01</leafValues></_>
        <_>
          <internalNodes>
            0 -1 23 -1.6603201627731323e-02</internalNodes>
          <leafValues>
            6.2484717369079590e-01 -9.5765316486358643e-01</leafValues></_></weakClassifiers></_>
    <!-- stage 3 -->
    <_>
      <maxWeakCount>3</maxWeakCount>
      <stageThreshold>-1.2912132740020752e+00</stageThreshold>
      <weakClassifiers>
        <_>
          <internalNodes>
            0 -1 20 5.9710070490837097e-02</internalNodes>
          <leafValues>
            -9.7159093618392944e-01 6.4705884456634521e-01</leafValues></_>
        <_>
          <internalNodes>
            0 -1 21 2.3596733808517456e-02</internalNodes>
          <leafValues>
            -9.2934620380401611e-01 5.5665963888168335e-01</leafValues></_>
        <_>
          <internalNodes>
            0 -1 0 4.8889443278312683e-03</internalNodes>
          <leafValues>
            -8.6455816030502319e-01 6.0972380638122559e-01</leafValues></_></weakClassifiers></_>
    <!-- stage 4 -->
    <_>
      <maxWeakCount>3</maxWeakCount>
      <stageThreshold>-1.4042941331863403e+00</stageThreshold>
      <weakClassifiers>
        <_>
          <internalNodes>
            0 -1 4 -9.7519084811210632e-02</internalNodes>
          <leafValues>
            7.1875000000000000e-01 -9.6629214286804199e-01</leafValues></_>
        <_>
          <internalNodes>
            0 -1 9 -3.6685533821582794e-02</internalNodes>
          <leafValues>
            8.2752239704132080e-01 -8.7010318040847778e-01</leafValues></_>
        <_>
          <internalNodes>
            0 -1 15 -2.1228235214948654e-02</internalNodes>
          <leafValues>
            4.3210121989250183e-01 -9.8434811830520630e-01</leafValues></_></weakClassifiers></_>
    <!-- stage 5 -->
    <_>
      <maxWeakCount>3</maxWeakCount>
      <stageThreshold>-1.2277681827545166e+00</stageThreshold>
      <weakClassifiers>
        <_>
          <internalNodes>
            0 -1 24 -2.9256243258714676e-02</internalNodes>
          <leafValues>
            7.2881358861923218e-01 -9.4459831714630127e-01</leafValues></_>
        <_>
          <internalNodes>
            0 -1 22 3.9312090724706650e-02</internalNodes>
          <leafValues>
            -8.0723863840103149e-01 8.7244474887847900e-01</leafValues></_>
        <_>
          <internalNodes>
            0 -1 16 7.0132389664649963e-03</internalNodes>
          <leafValues>
            -1. 5.2406877279281616e-01</leafValues></_></weakClassifiers></_>
    <!-- stage 6 -->
    <_>
      <maxWeakCount>3</maxWeakCount>
      <stageThreshold>-1.3888561725616455e+00</stageThreshold>
      <weakClassifiers>
        <_>
          <internalNodes>
            0 -1 11 1.2913662940263748e-02</internalNodes>
          <leafValues>
            -9.4999998807907104e-01 7.3333334922790527e-01</leafValues></_>
        <_>
          <internalNodes>
            0 -1 12 1.1484905146062374e-02</internalNodes>
          <leafValues>
            -8.8338851928710938e-01 5.4618293046951294e-01</leafValues></_>
        <_>
          <internalNodes>
            0 -1 19 -5.9539326466619968e-03</internalNodes>
          <leafValues>
            4.4453236460685730e-01 -9.9098443984985352e-01</leafValues></_></weakClassifiers></_>
    <!-- stage 7 -->
    <_>
      <maxWeakCount>4</maxWeakCount>
      <stageThreshold>-2.0967724323272705e+00</stageThreshold>
      <weakClassifiers>
        <_>
          <internalNodes>
            0 -1 6 -7.0303827524185181e-02</internalNodes>
          <leafValues>
            8.7500000000000000e-01 -9.1397851705551147e-01</leafValues></_>
        <_>
          <internalNodes>
            0 -1 17 -4.1581973433494568e-02</internalNodes>
          <leafValues>
            7.4801975488662720e-01 -9.2139142751693726e-01</leafValues></_>
        <_>
          <internalNodes>
            0 -1 5 -1.3182598352432251e-01</internalNodes>
          <leafValues>
            6.8569725751876831e-01 -8.2775390148162842e-01</leafValues></_>
        <_>
          <internalNodes>
            0 -1 14 2.5031683035194874e-03</internalNodes>
          <leafValues>
            -9.7612339258193970e-01 5.6635153293609619e-01</leafValues></_></weakClassifiers></_></stages>
  <features>
    <_>
      <rects>
        <_>
          0 0 4 2 -1.</_>
        <_>
          2 0 2 2 2.</_></rects>
      <tilted>0</tilted></_>
    <_>
      <rects>
        <_>
          0 4 24 17 -1.</_>
        <_>
          8 4 8 17 3.</_></rects>
      <tilted>0</tilted></_>
    <_>
      <rects>
        <_>
          0 22 6 8 -1.</_>
        <_>
          0 26 6 4 2.</_></rects>
      <tilted>0</tilted></_>
    <_>
      <rects>
        <_>
          1 0 21 9 -1.</_>
        <_>
          1 3 21 3 3.</_></rects>
      <tilted>0</tilted></_>
    <_>
      <rects>
        <_>
          1 4 12 17 -1.</_>
        <_>
          5 4 4 17 3.</_></rects>
      <tilted>0</tilted></_>
    <_>
      <rects>
        <_>
          1 8 21 7 -1.</_>
        <_>
          8 8 7 7 3.</_></rects>
      <tilted>0</tilted></_>
    <_>
      <rects>
        <_>
          2 1 15 4 -1.</_>
        <_>
          2 3 15 2 2.</_></rects>
      <tilted>0</tilted></_>
    <_>
      <rects>
        <_>
          2 5 6 25 -1.</_>
        <_>
          4 5 2 25 3.</_></rects>
      <tilted>0</tilted></_>
    <_>
      <rects>
        <_>
          2 7 21 6 -1.</_>
        <_>
          9 7 7 6 3.</_></rects>
      <tilted>0</tilted></_>
    <_>
      <rects>
        <_>
          2 9 3 12 -1.</_>
        <_>
          2 13 3 4 3.</_></rects>
      <tilted>0</tilted></_>
    <_>
      <rects>
        <_>
          3 1 18 21 -1.</_>
        <_>
          9 1 6 21 3.</_></rects>
      <tilted>0</tilted></_>
    <_>
      <rects>
        <_>
          4 5 1 12 -1.</_>
        <_>
          4 9 1 4 3.</_></rects>
      <tilted>0</tilted></_>
    <_>
      <rects>
        <_>
          4 22 12 2 -1.</_>
        <_>
          8 22 4 2 3.</_></rects>
      <tilted>0</tilted></_>
    <_>
      <rects>
        <_>
          5 0 12 6 -1.</_>
        <_>
          5 3 12 3 2.</_></rects>
      <tilted>0</tilted></_>
    <_>
      <rects>
        <_>
          7 19 6 5 -1.</_>
        <_>
          9 19 2 5 3.</_></rects>
      <tilted>0</tilted></_>
    <_>
      <rects>
        <_>
          8 0 1 30 -1.</_>
        <_>
          8 10 1 10 3.</_></rects>
      <tilted>0</tilted></_>
    <_>
      <rects>
        <_>
          9 6 14 4 -1.</_>
        <_>
          9 8 14 2 2.</_></rects>
      <tilted>0</tilted></_>
    <_>
      <rects>
        <_>
          11 17 9 11 -1.</_>
        <_>
          14 17 3 11 3.</_></rects>
      <tilted>0</tilted></_>
    <_>
      <rects>
        <_>
          15 19 9 11 -1.</_>
        <_>
          18 19 3 11 3.</_></rects>
      <tilted>0</tilted></_>
    <_>
      <rects>
        <_>
          16 0 5 21 -1.</_>
        <_>
          16 7 5 7 3.</_></rects>
      <tilted>0</tilted></_>
    <_>
      <rects>
        <_>
          16 6 6 14 -1.</_>
        <_>
          19 6 3 14 2.</_></rects>
      <tilted>0</tilted></_>
    <_>
      <rects>
        <_>
          17 7 4 9 -1.</_>
        <_>
          17 10 4 3 3.</_></rects>
      <tilted>0</tilted></_>
    <_>
      <rects>
        <_>
          18 15 6 7 -1.</_>
        <_>
          20 15 2 7 3.</_></rects>
      <tilted>0</tilted></_>
    <_>
      <rects>
        <_>
          18 19 6 10 -1.</_>
        <_>
          21 19 3 10 2.</_></rects>
      <tilted>0</tilted></_>
    <_>
      <rects>
        <_>
          20 1 3 9 -1.</_>
        <_>
          20 4 3 3 3.</_></rects>
      <tilted>0</tilted></_></features></cascade>
</opencv_storage>
