<?xml version="1.0"?>
<opencv_storage>
<cascade>
  <stageType>BOOST</stageType>
  <featureType>HAAR</featureType>
  <height>24</height>
  <width>24</width>
  <stageParams>
    <boostType>GAB</boostType>
    <minHitRate>9.9500000476837158e-01</minHitRate>
    <maxFalseAlarm>5.0000000000000000e-01</maxFalseAlarm>
    <weightTrimRate>9.4999998807907104e-01</weightTrimRate>
    <maxDepth>1</maxDepth>
    <maxWeakCount>100</maxWeakCount></stageParams>
  <featureParams>
    <maxCatCount>0</maxCatCount>
    <featSize>1</featSize>
    <mode>BASIC</mode></featureParams>
  <stageNum>13</stageNum>
  <stages>
    <!-- stage 0 -->
    <_>
      <maxWeakCount>3</maxWeakCount>
      <stageThreshold>-1.1763855218887329e+00</stageThreshold>
      <weakClassifiers>
        <_>
          <internalNodes>
            0 -1 5 -6.9288834929466248e-02</internalNodes>
          <leafValues>
            7.1929824352264404e-01 -9.4648832082748413e-01</leafValues></_>
        <_>
          <internalNodes>
            0 -1 14 -8.1860706210136414e-02</internalNodes>
          <leafValues>
            6.5816479921340942e-01 -9.5053976774215698e-01</leafValues></_>
        <_>
          <internalNodes>
            0 -1 34 2.6427797973155975e-02</internalNodes>
          <leafValues>
            -8.8806200027465820e-01 8.2957857847213745e-01</leafValues></_></weakClassifiers></_>
    <!-- stage 1 -->
    <_>
      <maxWeakCount>3</maxWeakCount>
      <stageThreshold>-1.2514450550079346e+00</stageThreshold>
      <weakClassifiers>
        <_>
          <internalNodes>
            0 -1 22 -2.9568478465080261e-02</internalNodes>
          <leafValues>
            7.3913043737411499e-01 -8.9032256603240967e-01</leafValues></_>
        <_>
          <internalNodes>
            0 -1 15 -4.4470716267824173e-02</internalNodes>
          <leafValues>
            6.0190814733505249e-01 -9.2946827411651611e-01</leafValues></_>
        <_>
          <internalNodes>
            0 -1 28 -4.6210717409849167e-03</internalNodes>
          <leafValues>
            5.6834590435028076e-01 -8.5007375478744507e-01</leafValues></_></weakClassifiers></_>
    <!-- stage 2 -->
    <_>
      <maxWeakCount>3</maxWeakCount>
      <stageThreshold>-1.5094417333602905e+00</stageThreshold>
      <weakClassifiers>
        <_>
          <internalNodes>
            0 -1 4 -4.0336601436138153e-02</internalNodes>
          <leafValues>
            4.2424243688583374e-01 -9.3103450536727905e-01</leafValues></_>
        <_>
          <internalNodes>
            0 -1 2 -1.4433741569519043e-02</internalNodes>
          <leafValues>
            3.9930233359336853e-01 -9.1597038507461548e-01</leafValues></_>
        <_>
          <internalNodes>
            0 -1 1 -2.2313457727432251e-01</internalNodes>
          <leafValues>
            3.3756318688392639e-01 -1.</leafValues></_></weakClassifiers></_>
    <!-- stage 3 -->
    <_>
      <maxWeakCount>1</maxWeakCount>
      <stageThreshold>4.4303798675537109e-01</stageThreshold>
      <weakClassifiers>
        <_>
          <internalNodes>
            0 -1 12 -2.9875975847244263e-01</internalNodes>
          <leafValues>
            4.4303798675537109e-01 -1.</leafValues></_></weakClassifiers></_>
    <!-- stage 4 -->
    <_>
      <maxWeakCount>2</maxWeakCount>
      <stageThreshold>-6.6586619615554810e-01</stageThreshold>
      <weakClassifiers>
        <_>
          <internalNodes>
            0 -1 32 3.6829628050327301e-02</internalNodes>
          <leafValues>
            -9.2439860105514526e-01 4.1538462042808533e-01</leafValues></_>
        <_>
          <internalNodes>
            0 -1 18 -7.5104930438101292e-03</internalNodes>
          <leafValues>
            2.5853243470191956e-01 -9.8762792348861694e-01</leafValues></_></weakClassifiers></_>
    <!-- stage 5 -->
    <_>
      <maxWeakCount>2</maxWeakCount>
      <stageThreshold>-5.2170145511627197e-01</stageThreshold>
      <weakClassifiers>
        <_>
          <internalNodes>
            0 -1 31 -1.8526405096054077e-02</internalNodes>
          <leafValues>
            3.3333334326744080e-01 -8.6092716455459595e-01</leafValues></_>
        <_>
          <internalNodes>
            0 -1 29 -1.6573067754507065e-02</internalNodes>
          <leafValues>
            3.3922567963600159e-01 -8.4551697969436646e-01</leafValues></_></weakClassifiers></_>
    <!-- stage 6 -->
    <_>
      <maxWeakCount>3</maxWeakCount>
      <stageThreshold>-1.4767045974731445e+00</stageThreshold>
      <weakClassifiers>
        <_>
          <internalNodes>
            0 -1 8 -3.0229598283767700e-01</internalNodes>
          <leafValues>
            3.5849055647850037e-01 -8.6138612031936646e-01</leafValues></_>
        <_>
          <internalNodes>
            0 -1 24 2.4922471493482590e-02</internalNodes>
          <leafValues>
            -9.0540623664855957e-01 2.7611887454986572e-01</leafValues></_>
        <_>
          <internalNodes>
            0 -1 19 -5.2398974075913429e-03</internalNodes>
          <leafValues>
            2.9008775949478149e-01 -1.</leafValues></_></weakClassifiers></_>
    <!-- stage 7 -->
    <_>
      <maxWeakCount>4</maxWeakCount>
      <stageThreshold>-1.1066483259201050e+00</stageThreshold>
      <weakClassifiers>
        <_>
          <internalNodes>
            0 -1 13 -6.3008025288581848e-02</internalNodes>
          <leafValues>
            3.4615385532379150e-01 -8.5526317358016968e-01</leafValues></_>
        <_>
          <internalNodes>
            0 -1 10 -1.5975484251976013e-01</internalNodes>
          <leafValues>
            3.4436699748039246e-01 -8.6135619878768921e-01</leafValues></_>
        <_>
          <internalNodes>
            0 -1 6 -1.3597540601040237e-05</internalNodes>
          <leafValues>
            3.4247568249702454e-01 -9.3173092603683472e-01</leafValues></_>
        <_>
          <internalNodes>
            0 -1 7 2.4799835955491289e-05</internalNodes>
          <leafValues>
            -1. 3.4028494358062744e-01</leafValues></_></weakClassifiers></_>
    <!-- stage 8 -->
    <_>
      <maxWeakCount>3</maxWeakCount>
      <stageThreshold>-1.2113610506057739e+00</stageThreshold>
      <weakClassifiers>
        <_>
          <internalNodes>
            0 -1 20 6.8798758089542389e-02</internalNodes>
          <leafValues>
            -8.0685359239578247e-01 4.8571428656578064e-01</leafValues></_>
        <_>
          <internalNodes>
            0 -1 0 -1.5188704244792461e-02</internalNodes>
          <leafValues>
            4.7645545005798340e-01 -7.3033857345581055e-01</leafValues></_>
        <_>
          <internalNodes>
            0 -1 9 -2.1086441847728565e-05</internalNodes>
          <leafValues>
            4.3334192037582397e-01 -8.8096290826797485e-01</leafValues></_></weakClassifiers></_>
    <!-- stage 9 -->
    <_>
      <maxWeakCount>3</maxWeakCount>
      <stageThreshold>-1.1548869609832764e+00</stageThreshold>
      <weakClassifiers>
        <_>
          <internalNodes>
            0 -1 26 5.5359164252877235e-03</internalNodes>
          <leafValues>
            -8.2389938831329346e-01 5.2631580829620361e-01</leafValues></_>
        <_>
          <internalNodes>
            0 -1 33 1.6195934265851974e-02</internalNodes>
          <leafValues>
            -7.5780218839645386e-01 4.3627974390983582e-01</leafValues></_>
        <_>
          <internalNodes>
            0 -1 21 -2.5190249085426331e-02</internalNodes>
          <leafValues>
            5.1636910438537598e-01 -7.6726734638214111e-01</leafValues></_></weakClassifiers></_>
    <!-- stage 10 -->
    <_>
      <maxWeakCount>3</maxWeakCount>
      <stageThreshold>-5.9581285715103149e-01</stageThreshold>
      <weakClassifiers>
        <_>
          <internalNodes>
            0 -1 17 -4.4559177011251450e-02</internalNodes>
          <leafValues>
            3.2075470685958862e-01 -8.5478550195693970e-01</leafValues></_>
        <_>
          <internalNodes>
            0 -1 27 6.2660395633429289e-04</internalNodes>
          <leafValues>
            5.9521384537220001e-02 -1.</leafValues></_>
        <_>
          <internalNodes>
            0 -1 35 4.8254580178763717e-05</internalNodes>
          <leafValues>
            -1. 1.9945125281810760e-01</leafValues></_></weakClassifiers></_>
    <!-- stage 11 -->
    <_>
      <maxWeakCount>3</maxWeakCount>
      <stageThreshold>-1.2824532985687256e+00</stageThreshold>
      <weakClassifiers>
        <_>
          <internalNodes>
            0 -1 30 -3.5568300634622574e-02</internalNodes>
          <leafValues>
            8.5714286565780640e-01 -8.1097561120986938e-01</leafValues></_>
        <_>
          <internalNodes>
            0 -1 3 -2.7399161830544472e-02</internalNodes>
          <leafValues>
            3.6466029286384583e-01 -8.8170343637466431e-01</leafValues></_>
        <_>
          <internalNodes>
            0 -1 25 -1.3385431841015816e-02</internalNodes>
          <leafValues>
            4.2473801970481873e-01 -8.3613795042037964e-01</leafValues></_></weakClassifiers></_>
    <!-- stage 12 -->
    <_>
      <maxWeakCount>3</maxWeakCount>
      <stageThreshold>-1.0605642795562744e+00</stageThreshold>
      <weakClassifiers>
        <_>
          <internalNodes>
            0 -1 16 -1.1052357405424118e-01</internalNodes>
          <leafValues>
            5.3333336114883423e-01 -7.9141104221343994e-01</leafValues></_>
        <_>
          <internalNodes>
            0 -1 23 -7.0111058652400970e-02</internalNodes>
          <leafValues>
            4.9862712621688843e-01 -7.3954296112060547e-01</leafValues></_>
        <_>
          <internalNodes>
            0 -1 11 -1.6569510989938863e-05</internalNodes>
          <leafValues>
            4.7765272855758667e-01 -7.6778042316436768e-01</leafValues></_></weakClassifiers></_></stages>
  <features>
    <_>
      <rects>
        <_>
          0 3 4 13 -1.</_>
        <_>
          2 3 2 13 2.</_></rects>
      <tilted>0</tilted></_>
    <_>
      <rects>
        <_>
          0 3 24 10 -1.</_>
        <_>
          8 3 8 10 3.</_></rects>
      <tilted>0</tilted></_>
    <_>
      <rects>
        <_>
          0 4 4 16 -1.</_>
        <_>
          2 4 2 16 2.</_></rects>
      <tilted>0</tilted></_>
    <_>
      <rects>
        <_>
          0 9 21 1 -1.</_>
        <_>
          7 9 7 1 3.</_></rects>
      <tilted>0</tilted></_>
    <_>
      <rects>
        <_>
          0 10 24 1 -1.</_>
        <_>
          8 10 8 1 3.</_></rects>
      <tilted>0</tilted></_>
    <_>
      <rects>
        <_>
          0 10 24 2 -1.</_>
        <_>
          8 10 8 2 3.</_></rects>
      <tilted>0</tilted></_>
    <_>
      <rects>
        <_>
          0 21 2 1 -1.</_>
        <_>
          1 21 1 1 2.</_></rects>
      <tilted>0</tilted></_>
    <_>
      <rects>
        <_>
          0 22 24 1 -1.</_>
        <_>
          12 22 12 1 2.</_></rects>
      <tilted>0</tilted></_>
    <_>
      <rects>
        <_>
          1 1 21 11 -1.</_>
        <_>
          8 1 7 11 3.</_></rects>
      <tilted>0</tilted></_>
    <_>
      <rects>
        <_>
          1 22 2 1 -1.</_>
        <_>
          2 22 1 1 2.</_></rects>
      <tilted>0</tilted></_>
    <_>
      <rects>
        <_>
          2 3 16 12 -1.</_>
        <_>
          2 9 16 6 2.</_></rects>
      <tilted>0</tilted></_>
    <_>
      <rects>
        <_>
          2 23 2 1 -1.</_>
        <_>
          3 23 1 1 2.</_></rects>
      <tilted>0</tilted></_>
    <_>
      <rects>
        <_>
          3 0 16 20 -1.</_>
        <_>
          3 10 16 10 2.</_></rects>
      <tilted>0</tilted></_>
    <_>
      <rects>
        <_>
          3 3 15 3 -1.</_>
        <_>
          8 3 5 3 3.</_></rects>
      <tilted>0</tilted></_>
    <_>
      <rects>
        <_>
          3 5 20 8 -1.</_>
        <_>
          3 9 20 4 2.</_></rects>
      <tilted>0</tilted></_>
    <_>
      <rects>
        <_>
          5 1 12 7 -1.</_>
        <_>
          9 1 4 7 3.</_></rects>
      <tilted>0</tilted></_>
    <_>
      <rects>
        <_>
          5 1 15 5 -1.</_>
        <_>
          10 1 5 5 3.</_></rects>
      <tilted>0</tilted></_>
    <_>
      <rects>
        <_>
          6 7 11 6 -1.</_>
        <_>
          6 9 11 2 3.</_></rects>
      <tilted>0</tilted></_>
    <_>
      <rects>
        <_>
          6 12 4 12 -1.</_>
        <_>
          6 16 4 4 3.</_></rects>
      <tilted>0</tilted></_>
    <_>
      <rects>
        <_>
          6 13 11 4 -1.</_>
        <_>
          6 15 11 2 2.</_></rects>
      <tilted>0</tilted></_>
    <_>
      <rects>
        <_>
          7 3 12 5 -1.</_>
        <_>
          13 3 6 5 2.</_></rects>
      <tilted>0</tilted></_>
    <_>
      <rects>
        <_>
          7 10 9 10 -1.</_>
        <_>
          10 10 3 10 3.</_></rects>
      <tilted>0</tilted></_>
    <_>
      <rects>
        <_>
          8 7 7 6 -1.</_>
        <_>
          8 9 7 2 3.</_></rects>
      <tilted>0</tilted></_>
    <_>
      <rects>
        <_>
          8 9 16 14 -1.</_>
        <_>
          8 9 8 7 2.</_>
        <_>
          16 16 8 7 2.</_></rects>
      <tilted>0</tilted></_>
    <_>
      <rects>
        <_>
          9 10 8 14 -1.</_>
        <_>
          13 10 4 14 2.</_></rects>
      <tilted>0</tilted></_>
    <_>
      <rects>
        <_>
          10 6 3 12 -1.</_>
        <_>
          10 10 3 4 3.</_></rects>
      <tilted>0</tilted></_>
    <_>
      <rects>
        <_>
          10 6 5 2 -1.</_>
        <_>
          10 7 5 1 2.</_></rects>
      <tilted>0</tilted></_>
    <_>
      <rects>
        <_>
          10 23 4 1 -1.</_>
        <_>
          12 23 2 1 2.</_></rects>
      <tilted>0</tilted></_>
    <_>
      <rects>
        <_>
          12 0 1 9 -1.</_>
        <_>
          12 3 1 3 3.</_></rects>
      <tilted>0</tilted></_>
    <_>
      <rects>
        <_>
          12 0 4 9 -1.</_>
        <_>
          12 3 4 3 3.</_></rects>
      <tilted>0</tilted></_>
    <_>
      <rects>
        <_>
          15 10 6 12 -1.</_>
        <_>
          17 10 2 12 3.</_></rects>
      <tilted>0</tilted></_>
    <_>
      <rects>
        <_>
          16 17 6 6 -1.</_>
        <_>
          18 17 2 6 3.</_></rects>
      <tilted>0</tilted></_>
    <_>
      <rects>
        <_>
          18 15 6 9 -1.</_>
        <_>
          21 15 3 9 2.</_></rects>
      <tilted>0</tilted></_>
    <_>
      <rects>
        <_>
          20 0 4 18 -1.</_>
        <_>
          20 0 2 9 2.</_>
        <_>
          22 9 2 9 2.</_></rects>
      <tilted>0</tilted></_>
    <_>
      <rects>
        <_>
          20 9 4 15 -1.</_>
        <_>
          22 9 2 15 2.</_></rects>
      <tilted>0</tilted></_>
    <_>
      <rects>
        <_>
          22 19 2 3 -1.</_>
        <_>
          23 19 1 3 2.</_></rects>
      <tilted>0</tilted></_></features></cascade>
</opencv_storage>
